Language model created by QuickLM on Tue Feb 19 15:21:38 EST 2019
Copyright (c) 1996-2010 Carnegie Mellon University and Alexander I. Rudnicky

The model is in standard ARPA format, designed by Doug Paul while he was at MITRE.

The code that was used to produce this language model is available in Open Source.
Please visit http://www.speech.cs.cmu.edu/tools/ for more information

The (fixed) discount mass is 0.5. The backoffs are computed using the ratio method.
This model based on a corpus of 15 sentences and 29 words

\data\
ngram 1=29
ngram 2=42
ngram 3=33

\1-grams:
-0.9379 </s> -0.3010
-0.9379 <s> -0.2402
-1.6368 AVA -0.2478
-2.1139 BACKPACK -0.2478
-2.1139 BETTER -0.2478
-1.8129 CAN -0.2943
-2.1139 FAVORITE -0.2977
-1.6368 FEELING -0.2909
-2.1139 GO -0.2977
-1.8129 GOOD -0.2943
-2.1139 HEY -0.2909
-2.1139 HI -0.2909
-2.1139 HOME -0.2478
-2.1139 I -0.2977
-1.6368 I’M -0.2909
-2.1139 MORNING -0.2478
-2.1139 MY -0.2977
-2.1139 NIGHT -0.2478
-2.1139 NO -0.2478
-2.1139 OKAY -0.2478
-2.1139 PLAY -0.2977
-2.1139 SAD -0.2478
-2.1139 SEE -0.2977
-2.1139 SONG -0.2478
-2.1139 STRESSED -0.2478
-2.1139 THANKS -0.2478
-2.1139 YES -0.2478
-2.1139 YOU -0.2977
-2.1139 YOUR -0.2977

\2-grams:
-1.4771 <s> AVA 0.0000
-1.1761 <s> CAN 0.0000
-1.4771 <s> GO 0.0000
-1.1761 <s> GOOD 0.0000
-1.4771 <s> HEY 0.0000
-1.4771 <s> HI 0.0000
-1.0000 <s> I’M 0.0000
-1.4771 <s> NO 0.0000
-1.4771 <s> OKAY 0.0000
-1.4771 <s> THANKS 0.0000
-1.4771 <s> YES 0.0000
-0.3010 AVA </s> -0.3010
-0.3010 BACKPACK </s> -0.3010
-0.3010 BETTER </s> -0.3010
-0.6021 CAN I 0.0000
-0.6021 CAN YOU 0.0000
-0.3010 FAVORITE SONG 0.0000
-0.7782 FEELING BETTER 0.0000
-0.7782 FEELING SAD 0.0000
-0.7782 FEELING STRESSED 0.0000
-0.3010 GO HOME 0.0000
-0.6021 GOOD MORNING 0.0000
-0.6021 GOOD NIGHT 0.0000
-0.3010 HEY AVA 0.0000
-0.3010 HI AVA 0.0000
-0.3010 HOME </s> -0.3010
-0.3010 I SEE 0.0000
-0.3010 I’M FEELING 0.0000
-0.3010 MORNING </s> -0.3010
-0.3010 MY FAVORITE 0.0000
-0.3010 NIGHT </s> -0.3010
-0.3010 NO </s> -0.3010
-0.3010 OKAY </s> -0.3010
-0.3010 PLAY MY 0.0000
-0.3010 SAD </s> -0.3010
-0.3010 SEE YOUR 0.0000
-0.3010 SONG </s> -0.3010
-0.3010 STRESSED </s> -0.3010
-0.3010 THANKS </s> -0.3010
-0.3010 YES </s> -0.3010
-0.3010 YOU PLAY 0.0000
-0.3010 YOUR BACKPACK 0.0000

\3-grams:
-0.3010 <s> AVA </s>
-0.6021 <s> CAN I
-0.6021 <s> CAN YOU
-0.3010 <s> GO HOME
-0.6021 <s> GOOD MORNING
-0.6021 <s> GOOD NIGHT
-0.3010 <s> HEY AVA
-0.3010 <s> HI AVA
-0.3010 <s> I’M FEELING
-0.3010 <s> NO </s>
-0.3010 <s> OKAY </s>
-0.3010 <s> THANKS </s>
-0.3010 <s> YES </s>
-0.3010 CAN I SEE
-0.3010 CAN YOU PLAY
-0.3010 FAVORITE SONG </s>
-0.3010 FEELING BETTER </s>
-0.3010 FEELING SAD </s>
-0.3010 FEELING STRESSED </s>
-0.3010 GO HOME </s>
-0.3010 GOOD MORNING </s>
-0.3010 GOOD NIGHT </s>
-0.3010 HEY AVA </s>
-0.3010 HI AVA </s>
-0.3010 I SEE YOUR
-0.7782 I’M FEELING BETTER
-0.7782 I’M FEELING SAD
-0.7782 I’M FEELING STRESSED
-0.3010 MY FAVORITE SONG
-0.3010 PLAY MY FAVORITE
-0.3010 SEE YOUR BACKPACK
-0.3010 YOU PLAY MY
-0.3010 YOUR BACKPACK </s>

\end\
