Language model created by QuickLM on Thu Feb 28 15:44:45 EST 2019
Copyright (c) 1996-2010 Carnegie Mellon University and Alexander I. Rudnicky

The model is in standard ARPA format, designed by Doug Paul while he was at MITRE.

The code that was used to produce this language model is available in Open Source.
Please visit http://www.speech.cs.cmu.edu/tools/ for more information

The (fixed) discount mass is 0.5. The backoffs are computed using the ratio method.
This model based on a corpus of 19 sentences and 34 words

\data\
ngram 1=34
ngram 2=54
ngram 3=43

\1-grams:
-0.9466 </s> -0.3010
-0.9466 <s> -0.2401
-2.2253 ALL -0.2984
-1.7482 AVA -0.2489
-2.2253 BACKPACK -0.2489
-2.2253 BETTER -0.2489
-1.9243 CAN -0.2932
-2.2253 DONE -0.2489
-2.2253 FAVORITE -0.2984
-1.5263 FEELING -0.2825
-2.2253 GO -0.2984
-1.7482 GOOD -0.2430
-2.2253 HAPPY -0.2489
-2.2253 HEY -0.2932
-2.2253 HI -0.2932
-2.2253 HOME -0.2489
-2.2253 I -0.2984
-1.7482 I'M -0.2852
-1.7482 I’M -0.2879
-2.2253 MORNING -0.2489
-2.2253 MY -0.2984
-2.2253 NIGHT -0.2489
-2.2253 NO -0.2489
-2.2253 NOT -0.2489
-2.2253 OKAY -0.2489
-2.2253 PLAY -0.2984
-2.2253 SAD -0.2489
-2.2253 SEE -0.2984
-2.2253 SONG -0.2489
-2.2253 STRESSED -0.2489
-2.2253 THANK -0.2958
-2.2253 YES -0.2489
-1.9243 YOU -0.2460
-2.2253 YOUR -0.2984

\2-grams:
-1.5798 <s> ALL 0.0000
-1.5798 <s> AVA 0.0000
-1.2788 <s> CAN 0.0000
-1.5798 <s> GO 0.0000
-1.2788 <s> GOOD -0.1249
-1.5798 <s> HEY 0.0000
-1.5798 <s> HI 0.0000
-1.1027 <s> I'M 0.0000
-1.1027 <s> I’M 0.0000
-1.5798 <s> NO 0.0000
-1.5798 <s> OKAY 0.0000
-1.5798 <s> THANK 0.0000
-1.5798 <s> YES 0.0000
-0.3010 ALL DONE 0.0000
-0.3010 AVA </s> -0.3010
-0.3010 BACKPACK </s> -0.3010
-0.3010 BETTER </s> -0.3010
-0.6021 CAN I 0.0000
-0.6021 CAN YOU -0.1761
-0.3010 DONE </s> -0.3010
-0.3010 FAVORITE SONG 0.0000
-1.0000 FEELING BETTER 0.0000
-1.0000 FEELING GOOD -0.2218
-1.0000 FEELING HAPPY 0.0000
-1.0000 FEELING SAD 0.0000
-1.0000 FEELING STRESSED 0.0000
-0.3010 GO HOME 0.0000
-0.7782 GOOD </s> -0.3010
-0.7782 GOOD MORNING 0.0000
-0.7782 GOOD NIGHT 0.0000
-0.3010 HAPPY </s> -0.3010
-0.3010 HEY AVA 0.0000
-0.3010 HI AVA 0.0000
-0.3010 HOME </s> -0.3010
-0.3010 I SEE 0.0000
-0.4771 I'M FEELING -0.2041
-0.7782 I'M NOT 0.0000
-0.3010 I’M FEELING -0.1461
-0.3010 MORNING </s> -0.3010
-0.3010 MY FAVORITE 0.0000
-0.3010 NIGHT </s> -0.3010
-0.3010 NO </s> -0.3010
-0.3010 NOT </s> -0.3010
-0.3010 OKAY </s> -0.3010
-0.3010 PLAY MY 0.0000
-0.3010 SAD </s> -0.3010
-0.3010 SEE YOUR 0.0000
-0.3010 SONG </s> -0.3010
-0.3010 STRESSED </s> -0.3010
-0.3010 THANK YOU -0.1761
-0.3010 YES </s> -0.3010
-0.6021 YOU </s> -0.3010
-0.6021 YOU PLAY 0.0000
-0.3010 YOUR BACKPACK 0.0000

\3-grams:
-0.3010 <s> ALL DONE
-0.3010 <s> AVA </s>
-0.6021 <s> CAN I
-0.6021 <s> CAN YOU
-0.3010 <s> GO HOME
-0.6021 <s> GOOD MORNING
-0.6021 <s> GOOD NIGHT
-0.3010 <s> HEY AVA
-0.3010 <s> HI AVA
-0.4771 <s> I'M FEELING
-0.7782 <s> I'M NOT
-0.3010 <s> I’M FEELING
-0.3010 <s> NO </s>
-0.3010 <s> OKAY </s>
-0.3010 <s> THANK YOU
-0.3010 <s> YES </s>
-0.3010 ALL DONE </s>
-0.3010 CAN I SEE
-0.3010 CAN YOU PLAY
-0.3010 FAVORITE SONG </s>
-0.3010 FEELING BETTER </s>
-0.3010 FEELING GOOD </s>
-0.3010 FEELING HAPPY </s>
-0.3010 FEELING SAD </s>
-0.3010 FEELING STRESSED </s>
-0.3010 GO HOME </s>
-0.3010 GOOD MORNING </s>
-0.3010 GOOD NIGHT </s>
-0.3010 HEY AVA </s>
-0.3010 HI AVA </s>
-0.3010 I SEE YOUR
-0.6021 I'M FEELING GOOD
-0.6021 I'M FEELING HAPPY
-0.3010 I'M NOT </s>
-0.7782 I’M FEELING BETTER
-0.7782 I’M FEELING SAD
-0.7782 I’M FEELING STRESSED
-0.3010 MY FAVORITE SONG
-0.3010 PLAY MY FAVORITE
-0.3010 SEE YOUR BACKPACK
-0.3010 THANK YOU </s>
-0.3010 YOU PLAY MY
-0.3010 YOUR BACKPACK </s>

\end\
