Language model created by QuickLM on Sun Mar 17 17:48:56 EDT 2019
Copyright (c) 1996-2010 Carnegie Mellon University and Alexander I. Rudnicky

The model is in standard ARPA format, designed by Doug Paul while he was at MITRE.

The code that was used to produce this language model is available in Open Source.
Please visit http://www.speech.cs.cmu.edu/tools/ for more information

The (fixed) discount mass is 0.5. The backoffs are computed using the ratio method.
This model based on a corpus of 21 sentences and 26 words

\data\
ngram 1=26
ngram 2=45
ngram 3=39

\1-grams:
-0.8926 </s> -0.3010
-0.8926 <s> -0.2323
-2.2148 AVA -0.2415
-2.2148 BACKPACK -0.2415
-2.2148 DONE -0.2415
-2.2148 FAVORITE -0.2957
-1.9138 FEELING -0.2903
-1.9138 GOOD -0.2957
-1.7377 I'M -0.2876
-2.2148 MORNING -0.2415
-2.2148 MY -0.2957
-2.2148 NIGHT -0.2415
-1.7377 NO -0.2292
-2.2148 NOT -0.2984
-2.2148 OKAY -0.2415
-2.2148 PLAY -0.2984
-2.2148 PLEASE -0.2415
-2.2148 REALLY -0.2415
-1.9138 SAD -0.2415
-1.9138 SONG -0.2415
-1.9138 STRESSED -0.2415
-1.9138 THANK -0.2957
-1.7377 THANKS -0.2415
-1.6128 YES -0.2229
-1.9138 YOU -0.2415
-2.2148 YOUR -0.2984

\2-grams:
-1.6232 <s> AVA 0.0000
-1.6232 <s> DONE 0.0000
-1.6232 <s> FAVORITE 0.0000
-1.3222 <s> FEELING 0.0000
-1.3222 <s> GOOD 0.0000
-1.1461 <s> I'M 0.0000
-1.1461 <s> NO 0.0000
-1.6232 <s> PLAY 0.0000
-1.6232 <s> THANK 0.0000
-1.6232 <s> THANKS 0.0000
-1.0212 <s> YES 0.0000
-1.6232 <s> YOUR 0.0000
-0.3010 AVA </s> -0.3010
-0.3010 BACKPACK </s> -0.3010
-0.3010 DONE </s> -0.3010
-0.3010 FAVORITE SONG 0.0000
-0.6021 FEELING SAD 0.0000
-0.6021 FEELING STRESSED 0.0000
-0.6021 GOOD MORNING 0.0000
-0.6021 GOOD NIGHT 0.0000
-0.7782 I'M OKAY 0.0000
-0.7782 I'M SAD 0.0000
-0.7782 I'M STRESSED 0.0000
-0.3010 MORNING </s> -0.3010
-0.3010 MY SONG 0.0000
-0.3010 NIGHT </s> -0.3010
-0.7782 NO </s> -0.3010
-0.7782 NO NOT 0.0000
-0.7782 NO THANKS 0.0000
-0.3010 NOT REALLY 0.0000
-0.3010 OKAY </s> -0.3010
-0.3010 PLAY MY 0.0000
-0.3010 PLEASE </s> -0.3010
-0.3010 REALLY </s> -0.3010
-0.3010 SAD </s> -0.3010
-0.3010 SONG </s> -0.3010
-0.3010 STRESSED </s> -0.3010
-0.3010 THANK YOU 0.0000
-0.3010 THANKS </s> -0.3010
-0.9031 YES </s> -0.3010
-0.9031 YES PLEASE 0.0000
-0.9031 YES THANK 0.0000
-0.9031 YES THANKS 0.0000
-0.3010 YOU </s> -0.3010
-0.3010 YOUR BACKPACK 0.0000

\3-grams:
-0.3010 <s> AVA </s>
-0.3010 <s> DONE </s>
-0.3010 <s> FAVORITE SONG
-0.6021 <s> FEELING SAD
-0.6021 <s> FEELING STRESSED
-0.6021 <s> GOOD MORNING
-0.6021 <s> GOOD NIGHT
-0.7782 <s> I'M OKAY
-0.7782 <s> I'M SAD
-0.7782 <s> I'M STRESSED
-0.7782 <s> NO </s>
-0.7782 <s> NO NOT
-0.7782 <s> NO THANKS
-0.3010 <s> PLAY MY
-0.3010 <s> THANK YOU
-0.3010 <s> THANKS </s>
-0.9031 <s> YES </s>
-0.9031 <s> YES PLEASE
-0.9031 <s> YES THANK
-0.9031 <s> YES THANKS
-0.3010 <s> YOUR BACKPACK
-0.3010 FAVORITE SONG </s>
-0.3010 FEELING SAD </s>
-0.3010 FEELING STRESSED </s>
-0.3010 GOOD MORNING </s>
-0.3010 GOOD NIGHT </s>
-0.3010 I'M OKAY </s>
-0.3010 I'M SAD </s>
-0.3010 I'M STRESSED </s>
-0.3010 MY SONG </s>
-0.3010 NO NOT REALLY
-0.3010 NO THANKS </s>
-0.3010 NOT REALLY </s>
-0.3010 PLAY MY SONG
-0.3010 THANK YOU </s>
-0.3010 YES PLEASE </s>
-0.3010 YES THANK YOU
-0.3010 YES THANKS </s>
-0.3010 YOUR BACKPACK </s>

\end\
